{"generation": 20, "best_weights": [0.7414708709246471, -0.06805317887194828, 0.9453245259044942, -0.5357488473264091, 0.8264480772677105, -0.6822941000736535], "best_fitness": 0.25, "weights_history": [{"generation": 0, "weights": [0.7414708709246471, -0.06805317887194828, 0.9453245259044942, -0.5357488473264091, 0.8264480772677105, -0.6822941000736535], "fitness": 0.25}, {"generation": 1, "weights": [0.7414708709246471, -0.06805317887194828, 0.9453245259044942, -0.5357488473264091, 0.8264480772677105, -0.6822941000736535], "fitness": 0.0}, {"generation": 2, "weights": [0.7414708709246471, -0.06805317887194828, 0.9453245259044942, -0.5357488473264091, 0.8264480772677105, -0.6822941000736535], "fitness": 0.0}, {"generation": 3, "weights": [-0.025157409297993816, -0.35723675861800275, 0.4716192385221103, 0.2531165546273153, 0.2768620420273147, 0.36214419521303887], "fitness": 0.25}, {"generation": 4, "weights": [-0.025157409297993816, -0.35723675861800275, 0.4716192385221103, 0.2531165546273153, 0.2768620420273147, 0.36214419521303887], "fitness": 0.25}, {"generation": 5, "weights": [0.7414708709246471, -0.06805317887194828, 0.9453245259044942, -0.5357488473264091, 0.8264480772677105, -0.6822941000736535], "fitness": 0.25}, {"generation": 6, "weights": [0.7414708709246471, -0.06805317887194828, 0.9453245259044942, -0.5357488473264091, 0.8264480772677105, -0.6822941000736535], "fitness": 0.25}, {"generation": 7, "weights": [0.7414708709246471, -0.06805317887194828, 0.9453245259044942, -0.5357488473264091, 0.8264480772677105, -0.6822941000736535], "fitness": 0.25}, {"generation": 8, "weights": [0.7414708709246471, -0.06805317887194828, 0.9453245259044942, -0.5357488473264091, 0.8264480772677105, -0.6822941000736535], "fitness": 0.25}, {"generation": 9, "weights": [-0.025157409297993816, -0.35723675861800275, 0.4716192385221103, 0.2531165546273153, 0.2768620420273147, 0.36214419521303887], "fitness": 0.25}, {"generation": 10, "weights": [0.7414708709246471, -0.06805317887194828, 0.9453245259044942, -0.5357488473264091, 0.8264480772677105, -0.6822941000736535], "fitness": 0.25}, {"generation": 11, "weights": [0.7414708709246471, -0.06805317887194828, 0.9453245259044942, -0.5357488473264091, 0.8264480772677105, -0.6822941000736535], "fitness": 0.25}, {"generation": 12, "weights": [0.7414708709246471, -0.06805317887194828, 0.9453245259044942, -0.5357488473264091, 0.8264480772677105, -0.6822941000736535], "fitness": 0.25}, {"generation": 13, "weights": [0.7414708709246471, -0.06805317887194828, 0.9453245259044942, -0.5357488473264091, 0.8264480772677105, -0.6822941000736535], "fitness": 0.0}, {"generation": 14, "weights": [-0.025157409297993816, -0.35723675861800275, 0.4716192385221103, 0.2531165546273153, 0.2768620420273147, 0.36214419521303887], "fitness": 0.25}, {"generation": 15, "weights": [-0.025157409297993816, -0.35723675861800275, 0.4716192385221103, 0.2531165546273153, 0.2768620420273147, 0.36214419521303887], "fitness": 0.125}, {"generation": 16, "weights": [0.7414708709246471, -0.06805317887194828, 0.9453245259044942, -0.5357488473264091, 0.8264480772677105, -0.6822941000736535], "fitness": 0.25}, {"generation": 17, "weights": [0.7414708709246471, -0.06805317887194828, 0.9453245259044942, -0.5357488473264091, 0.8264480772677105, -0.6822941000736535], "fitness": 0.0}, {"generation": 18, "weights": [0.7414708709246471, -0.06805317887194828, 0.9453245259044942, -0.5357488473264091, 0.8264480772677105, -0.6822941000736535], "fitness": 0.0}, {"generation": 19, "weights": [0.7414708709246471, -0.06805317887194828, 0.9453245259044942, -0.5357488473264091, 0.8264480772677105, -0.6822941000736535], "fitness": 0.125}, {"generation": 20, "weights": [0.7414708709246471, -0.06805317887194828, 0.9453245259044942, -0.5357488473264091, 0.8264480772677105, -0.6822941000736535], "fitness": 0.25}]}